# 6-mer frequency bias matrix for KmerScore object.
# Load using KmerScore(data="<filepath>", k=6)
-0.254159
-0.110674
-0.043440
-0.233606
-0.200846
-0.073223
0.075311
-0.111486
-0.086370
-0.035520
-0.062822
-0.098377
-0.327886
-0.103237
-0.118508
-0.182203
-0.273427
-0.254566
-0.065394
-0.179051
-0.121154
-0.116398
0.178966
-0.051541
0.120426
0.140404
0.137089
0.058914
-0.198433
-0.185450
-0.092061
-0.079495
-0.053302
-0.061398
-0.052860
0.014616
-0.056460
0.003179
0.170076
0.000612
-0.070537
-0.108170
-0.153451
-0.089561
-0.111141
-0.115446
-0.074307
-0.053365
-0.420675
-0.154512
-0.276559
-0.241130
-0.152301
-0.105214
0.116322
-0.118161
-0.192322
-0.155524
-0.117878
-0.122983
-0.236862
-0.138999
-0.067972
-0.167126
-0.275025
-0.059668
0.073879
-0.195796
-0.298303
-0.077130
0.009233
-0.252962
-0.097912
0.129103
-0.082869
0.079907
-0.307796
0.050527
-0.102157
-0.124438
-0.115197
-0.164646
0.071334
-0.140327
-0.176674
0.057880
0.072732
-0.063369
0.291713
0.438933
0.504378
0.211450
-0.196998
-0.102694
0.131737
-0.033127
0.190857
0.522144
0.553905
0.214445
0.149382
0.487630
0.159578
0.014363
0.195858
0.518698
0.492244
0.157139
-0.014236
0.363632
0.283839
0.015763
-0.308217
0.121445
-0.198788
-0.083869
-0.193733
-0.176535
0.149513
-0.180670
-0.211555
0.000559
0.016171
-0.124488
-0.093950
0.006659
-0.005309
-0.069203
-0.085463
0.115879
0.193733
-0.040508
-0.192065
0.029750
0.296757
-0.128243
-0.125870
0.111377
0.070172
-0.071359
-0.084246
0.159240
0.166380
0.015516
-0.151609
0.033686
0.164367
-0.134906
-0.042984
0.112644
0.372792
-0.042431
0.096978
0.551821
0.501411
0.124820
-0.068619
0.013515
0.166814
-0.090261
-0.111295
0.065213
0.181746
-0.008077
-0.177726
0.156857
0.270144
-0.066120
-0.190216
0.032406
-0.000011
-0.118986
-0.202994
-0.086826
0.076853
-0.035645
-0.258092
0.243734
-0.127159
-0.008043
-0.163590
-0.008762
0.330494
-0.119934
-0.157100
-0.073725
0.076834
-0.034554
-0.085357
0.093699
0.029300
-0.068070
-0.451223
-0.327041
-0.295059
-0.398492
-0.214793
-0.068983
0.135784
-0.136708
-0.283533
-0.284064
-0.386686
-0.224254
-0.242921
-0.241521
-0.061256
-0.222941
-0.210860
-0.302833
-0.062388
-0.200518
-0.112991
-0.333460
0.190960
-0.179701
0.210043
0.011093
0.200856
0.086226
-0.247867
-0.297183
-0.112851
-0.118310
-0.171897
-0.099297
-0.125947
-0.081287
-0.116920
0.018143
0.187265
-0.112660
-0.077637
0.013338
-0.084873
-0.036849
-0.061898
-0.120831
0.011137
-0.121154
-0.327725
-0.181778
-0.283688
-0.185235
-0.082004
-0.196609
0.159378
-0.258838
-0.062592
-0.120226
-0.009568
-0.173176
-0.180403
-0.274756
-0.078048
-0.207053
-0.256307
-0.203870
-0.138810
-0.190762
-0.013187
0.095522
0.384476
-0.061178
0.037732
0.119045
0.123999
0.137423
-0.329963
-0.148912
-0.092537
-0.211862
-0.317966
-0.323578
-0.203955
-0.348485
0.047798
-0.020719
0.323288
-0.119014
0.045725
0.102112
0.237271
-0.013386
-0.149754
-0.273853
-0.059581
-0.247659
-0.099590
-0.041745
-0.150841
-0.001104
0.066761
0.114594
0.426743
0.066089
-0.060247
-0.158292
-0.163829
-0.104770
0.053204
-0.011097
0.074201
0.026590
-0.373057
-0.203452
-0.313582
-0.362306
0.108018
0.078289
0.693785
-0.124128
-0.150139
-0.121081
-0.070588
-0.205131
-0.185448
-0.157267
0.103102
-0.195465
0.013361
0.072697
0.185441
-0.078243
-0.132252
0.192146
0.113053
-0.099173
0.094040
0.187120
0.068751
0.205890
-0.215137
0.171940
-0.015570
-0.046834
-0.112506
-0.112396
-0.039160
-0.117975
0.101262
0.322982
0.309789
0.094390
0.242765
0.379506
0.298000
0.233173
-0.071630
0.047124
0.090250
-0.071324
0.284049
0.693493
0.572850
0.345691
0.432908
0.565017
0.282130
0.540775
0.606862
0.606564
0.594918
0.345897
0.218791
0.331745
0.267699
0.207448
-0.291816
0.053355
-0.280410
-0.125360
0.003866
-0.021356
0.133557
-0.063978
0.045097
0.193723
0.180714
0.078532
-0.083958
0.127406
-0.191582
-0.036011
0.160094
0.135142
0.237921
0.179707
0.603939
0.701078
0.980364
0.404559
0.543744
0.672830
0.604510
0.494849
0.174263
0.206607
0.445067
0.176529
0.094501
0.158374
0.184168
-0.000456
0.499665
0.352604
0.649589
0.198230
0.262561
0.374105
0.454637
0.012101
0.141371
0.258152
0.284067
0.055890
0.171912
0.472468
0.268344
0.092010
0.505079
0.661135
0.781903
0.403091
0.313611
0.598454
0.248427
0.182447
0.070986
0.327498
0.291164
0.048894
-0.237314
0.266298
-0.117466
-0.034267
0.371938
0.346610
0.425909
0.217009
0.127182
0.355305
0.342647
0.081441
-0.032531
-0.014734
0.029563
-0.005122
-0.289479
-0.352842
-0.386351
-0.281182
0.057547
0.275063
0.637384
0.026236
-0.229023
-0.119364
-0.343174
-0.059269
-0.149736
-0.071421
0.109894
-0.102274
-0.214083
-0.259707
-0.119632
-0.240497
-0.104866
-0.074451
0.176754
-0.206906
0.255969
0.233278
0.233591
0.173156
-0.253206
-0.220072
-0.128638
-0.163782
-0.132381
-0.136785
-0.285755
-0.089070
-0.166406
0.052341
0.127053
-0.009700
0.089870
0.051991
-0.071012
0.037660
-0.099568
-0.022125
0.009733
-0.080417
-0.211468
-0.114744
-0.204345
-0.115601
0.038706
-0.046811
0.562879
-0.123171
-0.088550
-0.172191
-0.048329
-0.061759
-0.140449
-0.168958
0.009141
-0.105535
-0.112076
-0.043181
-0.070247
-0.093108
0.001247
0.070251
0.483061
0.013467
0.109155
0.172046
0.122821
0.071246
-0.166072
-0.132173
-0.060465
-0.020756
-0.159955
-0.187813
-0.140411
-0.140278
-0.036093
0.085693
0.446132
0.027636
0.339268
0.323910
0.115902
0.065200
-0.149997
-0.122002
-0.142210
-0.101763
-0.088354
-0.229752
-0.241714
-0.095263
0.041375
0.114246
0.425171
0.022008
0.062328
-0.036242
-0.144479
-0.110969
-0.142075
-0.068726
-0.081439
-0.055830
-0.171305
-0.040949
-0.161707
-0.061219
0.043332
0.276559
0.514365
0.026725
0.140218
0.108495
-0.002978
0.046875
-0.090917
-0.041959
0.080289
-0.065921
-0.103386
0.077522
0.016158
-0.144968
-0.020291
0.155416
0.259482
-0.057613
0.119314
0.445337
0.162461
0.272018
-0.215044
0.059131
-0.027064
-0.082631
-0.006339
-0.069339
0.089005
-0.054726
0.079286
0.265511
0.534418
0.124134
0.324116
0.576087
0.489127
0.281492
-0.145561
-0.162153
-0.016884
-0.009034
0.373868
0.664043
0.508979
0.040497
0.499644
0.576477
0.522711
0.524188
0.528523
0.802506
0.601632
0.284110
0.070842
0.229806
0.313851
0.211331
-0.214560
0.050180
-0.131062
-0.011417
0.058729
0.037005
0.419509
0.016794
0.081828
0.312232
0.192028
0.094637
-0.141355
-0.007174
-0.127306
-0.026969
-0.115295
-0.029469
-0.045476
-0.111973
-0.047903
0.196699
0.461644
-0.004134
0.077279
0.332031
0.215116
0.036802
-0.140931
0.001456
0.070714
-0.123659
-0.200461
-0.137380
-0.121291
-0.236946
0.065116
0.201902
0.338921
0.038069
0.228333
0.277357
0.334383
-0.071646
-0.114160
-0.070352
-0.163621
-0.099937
-0.179976
-0.112243
-0.163473
-0.208511
0.004754
0.188009
0.313265
-0.013234
-0.093660
0.033566
0.159206
-0.114165
-0.147406
-0.117448
-0.091229
-0.185132
-0.392625
-0.089373
-0.195515
-0.222725
-0.146619
0.030225
0.152413
-0.180706
-0.106457
0.106998
0.132226
-0.009403
-0.145138
-0.025999
-0.151255
-0.138770
-0.228268
-0.174268
-0.340492
-0.224699
0.182305
0.353090
0.720045
0.199221
-0.154199
-0.270059
-0.297987
0.023245
-0.002647
0.077285
0.212880
0.041306
-0.140126
-0.116514
0.036404
-0.095288
-0.037573
0.017578
0.356317
0.007022
0.351852
0.414178
0.449831
0.249437
-0.193309
-0.226406
-0.066833
-0.103149
-0.025926
0.021039
-0.207444
-0.033662
-0.044734
0.265817
0.313266
-0.095873
0.166464
0.037359
0.054890
0.108085
0.035221
0.000266
0.074576
-0.014216
-0.199864
0.034916
-0.113880
-0.089933
0.089559
0.162896
0.412112
-0.032527
-0.013648
0.023403
0.042224
0.015035
-0.034447
-0.193798
0.097786
-0.067697
-0.369418
-0.280048
-0.167195
-0.428492
-0.281271
-0.193273
-0.243607
-0.198766
-0.286224
-0.125467
-0.222937
-0.254731
-0.435845
-0.332703
-0.116464
-0.295029
-0.217073
-0.301919
-0.069286
-0.295472
0.013025
-0.094032
0.438757
-0.071568
0.095363
0.042505
0.129859
-0.049238
-0.177977
-0.131782
0.050932
-0.090195
-0.218419
-0.208379
-0.216228
-0.186962
-0.200630
-0.113953
-0.099968
-0.204538
-0.319923
-0.292954
-0.341438
-0.350036
-0.197645
-0.131466
-0.083208
-0.160296
-0.224355
-0.262634
-0.186117
-0.142988
-0.091051
-0.094030
0.221895
-0.213753
-0.054589
-0.121743
-0.027523
-0.214231
-0.197028
-0.147867
-0.082601
-0.165084
-0.072147
0.147965
0.183457
-0.176729
-0.227391
-0.004742
0.059961
-0.215566
0.025075
0.069498
-0.026753
0.090869
-0.238081
0.090460
0.020595
-0.083793
-0.095844
-0.079433
0.138164
-0.179047
-0.155145
0.133284
0.222130
-0.149360
0.584055
0.593224
0.567214
0.144173
-0.159304
-0.011884
0.124941
-0.144811
0.515110
1.004295
0.863707
0.319416
0.180290
0.581085
0.248046
0.120793
0.380457
0.550261
0.579257
0.322473
0.144937
0.626730
0.576530
0.162619
-0.269722
0.019015
-0.351773
-0.146597
-0.282847
-0.034734
-0.168247
-0.274215
-0.221762
-0.087740
-0.068068
-0.149848
-0.155193
0.004950
-0.222262
-0.091738
-0.046532
0.049550
0.158493
-0.105708
0.032803
0.208292
0.489509
-0.092915
-0.154341
0.120897
0.046842
-0.055051
-0.032421
-0.003103
0.285875
-0.129303
-0.151528
-0.048735
0.089669
-0.219251
0.083379
0.141296
0.385209
-0.097582
0.210553
0.267750
0.458870
0.066514
-0.085183
-0.044799
0.151605
-0.142892
-0.047219
0.170763
0.035311
-0.089277
0.056783
0.160285
0.367829
0.068805
-0.106637
0.171406
0.015098
-0.057131
-0.110450
0.027584
0.068284
-0.090694
-0.209703
0.104060
-0.095952
-0.083914
-0.049128
0.044562
0.476091
-0.128024
-0.194691
-0.029852
0.149411
-0.115453
-0.111143
-0.012374
-0.090587
-0.095876
-0.231369
-0.264698
-0.190637
-0.276621
-0.260866
-0.053315
0.181850
-0.053937
-0.221154
-0.319621
-0.366888
-0.186092
-0.238525
-0.135862
0.020142
-0.190940
-0.241034
-0.164787
0.090031
-0.219137
-0.129133
-0.140599
0.282314
-0.176244
0.407156
0.252768
0.226790
0.177589
-0.300112
-0.322859
-0.119462
-0.196036
0.033740
0.167225
0.006900
0.012237
-0.107328
0.138778
0.168166
-0.072063
0.036988
0.136476
-0.012140
0.029892
-0.141204
-0.104728
-0.071817
-0.144648
-0.175034
-0.212292
-0.113972
-0.164423
-0.218650
-0.249169
0.237323
-0.237417
-0.102925
-0.083531
-0.092649
-0.137778
-0.175388
-0.274462
-0.057213
-0.164296
-0.154434
-0.158013
-0.076442
-0.171596
-0.183180
-0.049166
0.213456
-0.143723
0.041014
0.044151
-0.123790
-0.155724
-0.308155
-0.144776
-0.109197
-0.177583
0.046393
-0.038040
0.093860
-0.026030
0.019195
0.087050
0.510824
0.002999
0.635406
0.450833
0.614975
0.399673
0.008993
-0.070686
-0.012959
-0.006760
0.099765
-0.048324
0.007268
0.113144
0.086397
0.109520
0.324688
0.080090
0.167799
0.116960
0.020589
-0.000976
0.038293
0.037389
0.044928
0.062411
-0.345252
-0.060516
-0.321163
-0.218167
-0.224509
-0.231373
0.250726
-0.306752
0.007722
0.070422
0.044873
-0.096847
-0.322315
-0.248578
-0.087652
-0.255972
-0.268072
-0.043728
-0.025652
-0.277170
-0.366032
-0.109407
0.030355
-0.135725
-0.127827
-0.001450
-0.096716
-0.063874
-0.399470
-0.106302
-0.325083
-0.220966
0.182470
0.035107
0.095936
0.016707
-0.124352
0.183509
0.285674
0.038432
0.487221
0.254532
0.453676
0.234628
-0.149131
-0.019461
0.021516
-0.059986
0.034081
0.449652
0.254274
0.105596
0.090458
0.117416
0.226493
0.221210
0.296844
0.412028
0.334900
0.159577
-0.126865
0.257756
-0.005016
-0.057701
-0.255375
0.122266
-0.179121
-0.141934
-0.208839
-0.193021
0.216880
-0.260480
-0.132837
-0.132682
0.011238
-0.100064
-0.272455
-0.088224
-0.250254
-0.191743
-0.030103
0.052642
0.071319
-0.033846
-0.042787
0.174984
0.246183
-0.045175
-0.086419
0.100979
-0.013315
-0.076184
0.004192
0.211471
0.102416
0.066604
0.084920
0.043424
0.370868
0.052562
0.120882
0.253157
0.558088
-0.126023
0.611797
0.543389
0.667488
0.304596
-0.025384
0.110130
0.267000
-0.018403
-0.076202
0.102480
0.092396
-0.060575
-0.122309
0.196306
0.109629
-0.133079
-0.102236
0.088060
0.022417
-0.096328
-0.204748
0.007022
0.020639
-0.067312
-0.203119
0.433959
-0.026444
0.249900
0.098163
0.123109
0.451398
-0.094741
0.060548
0.252615
0.111329
0.103415
-0.015235
0.201683
0.109467
0.050274
-0.358425
-0.328506
-0.323843
-0.357207
-0.225546
-0.000252
-0.097831
-0.043702
-0.216930
-0.192740
-0.351205
-0.221407
-0.322783
-0.138664
-0.240008
-0.247673
0.205275
0.048393
0.065760
0.108754
0.026974
0.053751
0.676145
0.086412
1.050441
0.461116
0.649856
0.611580
-0.075709
-0.137380
-0.169619
-0.057368
0.004647
-0.048352
-0.197247
-0.107369
-0.073880
-0.062457
0.294722
-0.024212
0.042428
0.111772
-0.034977
-0.014119
-0.160451
0.000701
-0.255083
-0.132674
-0.111368
-0.027033
-0.251631
-0.192862
-0.162236
-0.108188
0.270045
-0.265596
0.199125
0.105104
0.151077
-0.054763
-0.204551
-0.238750
-0.138152
-0.216164
-0.019918
0.020722
0.017469
-0.167209
0.045063
0.127593
0.492442
0.007657
0.092845
0.167108
0.138043
0.052298
-0.210852
-0.184886
0.167023
-0.184006
-0.117446
-0.089405
0.010722
-0.221586
0.084502
0.102532
0.303485
0.041355
0.340093
0.161747
0.362494
0.046580
-0.102318
-0.087884
-0.101045
-0.164943
0.023057
0.090559
0.077199
0.149073
0.157397
0.087723
0.542895
0.070612
0.029617
-0.011945
0.034842
-0.039077
0.167131
0.090965
0.201057
0.124388
-0.381429
-0.057386
-0.148571
-0.154648
0.104281
0.154292
0.607538
-0.142486
0.000998
0.035258
0.167766
-0.198810
-0.126448
-0.135140
0.133445
-0.205716
-0.156408
0.085364
0.072274
-0.044357
-0.096957
0.078378
0.195422
-0.112473
0.075905
0.079122
-0.028469
0.080324
-0.277979
0.049969
-0.008793
-0.165373
0.151235
0.120131
0.200725
0.038134
0.267512
0.444514
0.622754
0.337190
0.522163
0.502740
0.513989
0.238353
0.051516
0.170951
0.270872
-0.022017
0.291780
0.453820
0.492557
0.318632
0.452811
0.371649
0.544024
0.438993
0.516322
0.388503
0.341875
0.284671
0.148643
0.164903
0.405139
0.207354
-0.255363
0.243144
-0.202991
-0.002914
0.078048
0.090182
0.379089
-0.019092
0.096975
0.210349
0.249926
0.009287
-0.154301
0.068536
-0.129430
-0.101378
0.317039
0.273451
0.279780
0.301363
0.663749
0.457069
0.986371
0.470216
0.534069
0.689063
0.502502
0.373185
0.324301
0.211946
0.596361
0.280353
0.571944
0.421384
0.446839
0.645789
0.566273
0.392374
0.831254
0.329473
0.398794
0.483024
0.600130
0.524701
0.538172
0.491870
0.553799
0.397910
0.434590
0.543474
0.589705
0.542976
0.548070
0.473738
0.767978
0.403996
0.500210
0.506691
0.498544
0.164256
0.052828
0.245629
0.263078
0.238929
0.040788
0.443487
0.236672
0.135833
0.369724
0.365570
0.537465
0.033435
0.182540
0.496578
0.448095
0.238212
0.080993
0.324584
0.155247
0.055909
-0.214993
-0.370494
-0.361631
-0.308283
0.158895
0.144331
0.601376
0.049403
-0.205250
-0.195083
-0.363250
-0.189271
-0.112097
-0.080933
0.163254
-0.138417
0.041258
-0.035061
-0.067333
0.020146
0.007996
-0.149929
0.235605
0.009699
0.334372
0.236413
0.281222
0.160563
-0.071915
-0.100783
-0.080443
-0.003398
0.064697
0.007615
-0.061855
0.038780
0.128186
0.018988
0.522754
0.123611
0.239448
0.164976
0.017628
0.191513
-0.147031
0.068974
0.064549
-0.047870
-0.167928
0.041575
-0.214110
-0.092263
0.083078
-0.003063
0.536535
-0.060549
-0.211692
-0.052740
-0.119437
-0.152157
-0.103524
-0.156395
0.041702
-0.108194
0.347770
0.200291
0.279556
0.172424
0.091342
0.327941
0.454395
-0.033654
0.408619
0.347281
0.092085
0.178050
0.061988
0.407116
0.320343
0.237152
0.651148
0.555539
0.622571
0.652777
0.639226
0.524808
0.745198
0.504542
1.208690
0.815603
0.865710
0.909777
0.559622
0.288601
0.423939
0.329105
0.627935
0.336886
0.551653
0.521254
0.705159
0.622235
0.792578
0.615128
0.709331
0.460433
0.428629
0.374322
0.229810
0.484770
0.551434
0.404298
0.159386
0.504207
-0.076104
0.402222
0.251012
0.093485
0.278155
-0.123661
0.534564
0.491691
0.394259
0.373116
0.224137
0.039462
0.273229
0.067075
0.269200
0.405673
0.670334
0.094865
0.183429
0.303280
0.395976
0.205617
0.271519
0.535783
0.228748
0.262463
-0.079685
0.698595
0.364018
0.240100
0.571537
0.458380
0.602692
0.405733
0.243836
0.445577
0.381704
0.416003
0.725555
0.827841
0.771545
0.520603
0.428131
0.203953
0.366133
0.350854
-0.180442
0.623509
0.480806
0.131877
0.323615
0.420956
0.447348
0.566181
0.450503
0.675211
0.515535
0.211610
0.480970
0.374728
0.387439
0.111997
-0.292692
0.877180
-0.050042
0.552978
0.414967
0.387701
0.552762
0.187478
0.253694
0.602954
0.500040
0.326582
0.159747
0.452676
-0.082462
0.173164
0.291194
0.498534
0.402601
0.187539
0.468079
0.621961
0.598343
0.301753
0.431470
0.607572
0.449560
0.284930
0.215582
0.265847
0.427840
0.277689
0.574705
0.459140
0.664449
0.539373
0.562891
0.676746
0.733482
0.266949
0.676312
0.809667
1.106708
0.679758
0.311816
0.321133
0.636262
0.250391
0.385271
0.596993
0.466236
0.363123
0.551440
0.752888
0.490731
0.383576
0.374998
0.534919
0.475852
0.093671
0.227567
0.321071
0.271146
-0.040316
-0.214098
0.516780
-0.010131
0.305957
0.401658
0.384011
0.424145
0.045486
0.131901
0.413749
0.331531
0.204274
0.069324
0.239866
0.195088
0.124872
0.016054
-0.041472
-0.072163
-0.083571
0.211850
0.494847
0.754038
0.235596
-0.017262
0.193095
-0.035108
0.057312
-0.146706
0.266286
0.158466
0.133215
0.602604
0.334896
0.332106
0.476176
0.325949
0.309980
0.493901
0.335331
0.374862
0.548189
0.503499
0.610442
0.313212
0.000329
0.223063
0.186744
0.250633
0.182997
-0.031512
0.015674
0.414477
0.348996
0.601227
0.455884
0.456269
0.455863
0.315193
0.292976
0.207351
0.290736
0.217295
0.131084
-0.119061
0.252151
-0.078115
0.100140
0.100120
0.210162
0.360325
0.040358
0.029897
0.192583
0.040233
0.067134
0.023513
0.034428
0.219582
-0.041876
-0.290176
-0.173405
-0.063647
-0.297222
-0.339788
-0.284924
-0.111860
-0.374895
-0.322871
-0.283376
-0.346501
-0.340542
-0.368279
-0.276178
-0.132595
-0.400135
0.094034
0.118433
0.088038
0.108861
0.208140
0.143908
0.811682
0.093566
0.932470
0.556983
0.651879
0.385238
-0.095839
-0.078951
0.015610
-0.007546
-0.223132
-0.196846
-0.138280
-0.278019
-0.200233
-0.122419
0.004370
-0.249945
-0.397352
-0.348042
-0.227120
-0.494224
-0.177161
-0.194987
0.044780
-0.208075
-0.207323
-0.077908
-0.144235
-0.096960
-0.097270
-0.084015
0.486099
-0.290104
0.258379
0.145371
0.133795
-0.062653
-0.183050
-0.132456
-0.077615
-0.183598
-0.254616
0.104842
-0.018396
-0.223451
-0.281340
-0.057430
-0.053989
-0.350526
-0.013866
-0.084799
-0.055441
-0.000079
-0.307171
0.025800
-0.127485
-0.215227
-0.000854
-0.051355
-0.027501
-0.117885
-0.220336
0.075418
0.051546
-0.107120
0.472999
0.178443
0.329116
0.097875
-0.097148
0.010082
-0.139786
-0.138669
0.070072
0.289493
0.393688
0.115618
0.294258
0.312651
0.238458
0.107318
0.408689
0.209257
0.286278
0.270554
0.218017
0.224309
0.085380
0.018197
-0.334955
0.022779
-0.292682
-0.137951
-0.192532
-0.097134
0.144376
-0.333624
-0.115716
-0.112788
0.013227
-0.191719
-0.189089
0.056483
-0.175871
-0.174309
-0.117709
0.024902
0.148257
-0.187453
-0.026823
0.034720
0.401213
-0.186900
-0.271994
0.067142
-0.088894
-0.216797
-0.120382
0.063363
0.140832
-0.190045
-0.152519
0.037390
0.184902
-0.080619
0.013213
0.239584
0.490339
-0.163863
0.301352
0.561889
0.564177
0.171237
-0.023367
0.107417
0.345205
-0.114393
-0.022225
0.277776
0.245301
0.049808
0.037950
0.305769
0.492998
0.043002
-0.202263
0.112760
0.134453
-0.172337
0.004401
0.014765
0.360169
-0.022710
-0.290709
0.145250
-0.170119
0.001415
0.020150
0.150884
0.242834
-0.200269
-0.074395
0.129444
0.185518
-0.061964
-0.075387
-0.038362
-0.045206
-0.111608
-0.166431
-0.236996
-0.187187
-0.210326
-0.085417
0.017490
0.034009
-0.118936
-0.191341
-0.196550
-0.403226
-0.131862
-0.133341
-0.146385
-0.020263
-0.147995
0.035971
0.016755
0.077135
0.023280
-0.026136
-0.094176
0.448191
-0.043244
0.839141
0.334781
0.459016
0.472860
-0.104797
-0.084017
-0.099491
-0.083294
-0.152694
-0.176429
-0.286890
-0.111256
-0.088758
-0.125098
0.210810
-0.227263
-0.103143
-0.142058
-0.131239
-0.054723
-0.145974
-0.131114
-0.111129
-0.142231
-0.140989
-0.031939
-0.110068
-0.154272
-0.154263
-0.204005
0.050157
-0.271862
0.113879
0.001306
-0.010656
0.012118
-0.119585
-0.210703
-0.061444
-0.112520
-0.045871
-0.066801
-0.035411
-0.034497
-0.131639
-0.069336
0.100221
-0.085912
-0.055378
0.032775
-0.114037
0.042388
-0.197164
0.018823
-0.149161
0.020359
0.001075
-0.164648
0.075019
0.020812
0.000693
-0.059411
0.494568
0.123640
0.686774
0.285909
0.516617
0.359414
-0.052091
-0.116339
-0.037777
0.049379
0.184999
-0.012645
0.104195
0.252364
0.065634
0.112361
0.510928
0.125672
0.070159
0.053634
0.004635
0.091557
0.091423
-0.065544
0.005601
0.088397
-0.408927
-0.009569
-0.362854
0.011335
-0.148285
-0.036367
0.053934
-0.085482
-0.193816
-0.034499
-0.043743
0.089641
-0.108605
-0.046503
-0.043544
-0.042270
-0.098807
0.133101
0.182266
-0.096890
-0.248755
0.130339
0.173522
-0.100892
-0.076289
0.225608
-0.118050
0.185294
-0.271688
0.199757
-0.002684
-0.001926
0.109885
0.089247
0.169650
0.138977
0.065846
0.312243
0.426745
0.116488
0.656773
0.692518
0.663351
0.341600
-0.054304
0.019976
0.271372
0.030966
0.315964
0.837802
0.734048
0.558586
0.180041
0.606721
0.407252
0.435115
0.263837
0.700786
0.274736
0.386724
0.066554
0.332918
0.451411
0.092438
-0.407992
0.113520
-0.260994
0.152876
-0.224813
-0.039612
0.333188
-0.085914
-0.190530
0.018564
-0.006309
0.021582
-0.071100
-0.000653
-0.073120
-0.057764
-0.098250
0.093593
0.183442
-0.102683
-0.217882
0.010582
0.106030
-0.155441
-0.223257
0.131289
-0.141103
0.017862
-0.218486
0.171493
-0.017448
-0.087558
-0.015964
0.124720
0.327752
-0.015008
-0.060705
0.242489
0.429607
0.081132
0.519092
0.643303
0.754151
0.383714
-0.000835
0.150682
0.309256
-0.028899
0.048931
0.196830
0.374451
0.101965
-0.127917
0.132654
0.357960
-0.084077
-0.163307
0.240568
0.022876
-0.060084
-0.209972
-0.076370
0.174473
-0.171364
-0.354396
0.360349
-0.432197
0.180233
-0.132893
0.044113
0.357067
-0.143263
-0.205386
-0.057539
0.094419
0.043703
-0.146620
0.097844
-0.044784
-0.069449
-0.149305
-0.078342
-0.100562
-0.128621
-0.146082
0.081819
0.154477
0.031173
-0.160323
-0.020649
-0.308381
0.031541
-0.123487
0.082482
-0.042810
-0.026845
0.128488
-0.186939
0.116221
0.016784
0.026442
0.166991
0.455418
0.097825
0.770054
0.312157
0.488862
0.536053
-0.057581
-0.168796
-0.068533
-0.084955
0.225430
0.276919
0.156714
0.343919
0.010140
0.196635
0.286751
0.177917
0.037630
0.194676
0.050651
0.016950
0.037146
0.071952
0.072191
0.123951
-0.299086
-0.254385
-0.342569
0.031168
-0.123796
-0.104560
0.356595
-0.127922
0.094617
-0.018850
0.007720
-0.091751
-0.099108
-0.162764
-0.105539
-0.039992
-0.051608
-0.075154
-0.050683
-0.162144
0.017531
-0.068418
0.491940
0.026589
0.056324
0.163074
0.038108
0.043774
-0.169091
-0.312461
-0.078085
-0.206464
0.019447
-0.094315
-0.001467
-0.105890
0.138591
0.096583
0.569402
0.085822
0.397175
0.315213
0.338410
0.063198
0.094597
-0.126370
0.015771
-0.068633
0.100109
0.131597
0.005159
0.151916
0.371177
0.284444
0.717961
0.323829
0.139569
0.184205
0.009464
0.078769
0.171710
0.162165
0.093689
0.189844
-0.340014
-0.042587
-0.318140
-0.178827
0.130368
0.131630
0.711494
-0.014896
-0.119970
-0.002322
-0.025450
-0.074712
-0.067965
-0.163466
0.074854
-0.132089
0.142469
0.185431
0.189565
-0.010777
-0.016793
0.157452
0.341409
-0.050048
0.117516
0.283701
0.055768
0.235268
-0.106706
0.224037
0.140137
0.001248
0.125493
0.107950
0.119592
0.052782
0.221201
0.526481
0.523606
0.230612
0.662090
0.534892
0.473626
0.446353
0.125148
0.216182
0.293540
0.094332
0.326232
0.719510
0.477423
0.457257
0.599084
0.774834
0.708302
0.568549
0.627545
0.661618
0.446496
0.325675
0.353186
0.481774
0.436691
0.196641
-0.377444
0.303410
-0.263616
0.099775
-0.146860
-0.115429
0.160064
-0.036447
0.026093
0.173363
0.071845
-0.009188
0.014372
0.141903
-0.017489
-0.010083
0.100434
0.188385
0.142645
0.317988
0.447702
0.594359
0.840650
0.316199
0.454862
0.594674
0.426528
0.453589
0.161590
-0.168521
0.381796
-0.075374
0.533259
0.258753
0.375274
0.543267
0.495690
0.402800
0.738330
0.407435
0.382770
0.458388
0.505213
0.379272
0.653864
0.467216
0.592463
0.357362
0.428797
0.547452
0.488530
0.293656
0.716035
0.762027
1.086233
0.654238
0.593670
0.591062
0.421500
0.283546
0.459344
0.294138
0.252849
0.240629
-0.006709
0.435563
-0.033234
0.375449
0.349191
0.319428
0.498902
0.200315
-0.031516
0.377583
0.269342
0.281789
0.139978
0.132182
0.056003
0.101044
-0.080225
-0.276244
-0.253959
-0.328230
0.227435
0.295235
0.779958
0.019563
-0.069541
-0.088141
-0.321005
-0.050713
-0.074622
0.030562
0.200716
-0.056092
0.059066
-0.240312
0.090906
0.006986
0.062446
0.071499
0.365056
0.040960
0.485355
0.456120
0.542375
0.229497
0.032716
-0.008811
0.008285
0.017356
0.106711
0.153830
-0.018526
0.129716
0.270876
0.337747
0.606668
0.406698
0.224745
0.384686
-0.013524
0.221137
0.027974
0.142694
0.157318
0.065030
-0.260839
-0.063392
-0.318963
0.010662
0.040279
-0.009148
0.514242
-0.033672
-0.217135
-0.127848
-0.107812
-0.112918
-0.039978
-0.159590
0.048520
-0.025382
-0.008178
-0.138722
-0.076538
-0.044386
0.018830
0.060476
0.374641
-0.037141
0.071636
0.033449
-0.111047
0.014334
-0.188619
-0.064299
-0.091438
-0.063967
0.118887
-0.060113
0.124644
0.096368
0.247573
0.237213
0.603635
0.289461
0.795470
0.397367
0.509009
0.387382
-0.098021
-0.000381
0.027049
0.034602
0.173779
0.109473
0.004261
0.181285
0.233308
0.228810
0.646321
0.366395
0.302517
0.052396
0.034748
0.117158
0.125467
0.023617
-0.101125
-0.009673
-0.212443
-0.065378
-0.163472
0.024018
-0.053452
0.068453
0.499600
-0.036737
0.223564
0.044091
0.021559
0.100768
-0.334715
-0.124061
-0.133817
-0.033669
-0.031104
0.075792
0.096404
-0.156712
-0.138726
0.186407
0.227943
-0.003797
-0.008180
0.371084
-0.045373
0.168734
-0.241690
0.187191
-0.103849
-0.014940
0.178885
0.232137
0.163097
0.266054
0.198339
0.426544
0.657728
0.333708
0.562291
0.705495
0.442143
0.627020
0.075068
-0.021596
0.234990
0.197271
0.160507
0.419018
0.491308
0.299656
0.335129
0.501124
0.423129
0.514714
0.374718
0.953585
0.363201
0.480042
0.211104
0.440153
0.119047
0.139362
-0.366178
0.432961
-0.242411
0.171170
-0.223556
0.134432
0.398254
0.079881
-0.042452
0.317813
0.035407
0.107380
-0.155889
0.078729
-0.115695
0.030876
-0.108545
0.017176
-0.051338
-0.088507
-0.004848
0.242288
0.353094
-0.062883
-0.053160
0.226175
-0.117821
-0.041899
-0.169641
-0.002852
-0.018840
-0.307062
0.021179
0.143944
0.162657
0.112937
0.256628
0.405197
0.620567
0.238501
0.393167
0.460039
0.393402
0.253668
0.115846
0.056790
0.184801
0.004927
-0.072177
0.203993
0.111478
0.010842
0.085002
0.435486
0.361214
0.178868
0.098602
0.413312
0.239112
0.078914
-0.152924
0.026117
0.076640
-0.175220
-0.300148
0.075801
-0.230170
-0.047937
-0.043453
0.032626
0.201479
-0.133015
-0.049311
0.087670
0.023194
-0.040365
-0.195690
-0.203242
-0.126546
-0.169694
-0.197105
-0.225527
-0.516179
-0.270390
0.045100
0.144275
0.469299
0.020520
-0.137190
0.034791
-0.371664
-0.012453
-0.171745
0.048774
-0.101531
-0.086267
0.085129
0.005421
-0.061767
0.145340
0.101438
0.070036
0.365890
0.079733
0.285592
0.307204
0.194265
0.266866
-0.104845
-0.273948
-0.064584
-0.167409
0.084649
0.095675
-0.174601
0.015167
0.108877
0.146876
0.384639
0.257857
0.231211
0.221207
0.026792
0.282804
0.025478
0.140196
-0.000401
0.070407
-0.291489
0.050515
-0.299693
0.063490
-0.155143
0.002896
0.546487
-0.041031
-0.068764
-0.125736
-0.029338
-0.048028
-0.077757
-0.225884
-0.024305
-0.022295
-0.162732
-0.181965
-0.060078
-0.191469
-0.293906
-0.114392
-0.196486
-0.191209
-0.345862
-0.293983
-0.289980
-0.410647
-0.224729
-0.391940
-0.061909
-0.253669
0.156021
0.095344
0.184110
0.087103
0.241595
0.093069
0.715948
0.201291
0.847282
0.664011
0.656661
0.403032
0.073809
0.060420
0.159755
0.088399
-0.097512
-0.079526
-0.222023
-0.085945
0.049215
0.032342
0.049421
-0.351610
-0.294486
-0.250251
-0.230812
-0.335901
0.022443
-0.230954
0.080960
-0.070851
-0.140772
-0.105814
-0.016882
-0.003321
0.049646
0.039856
0.484492
-0.071728
0.165130
0.103608
0.167633
-0.021558
-0.008576
-0.047800
0.001218
-0.067844
-0.082807
0.200159
0.070856
-0.087827
-0.162886
0.096413
0.256920
-0.095646
0.047677
0.170058
-0.146541
0.094771
-0.164802
0.188207
0.016140
-0.038466
0.055518
0.083372
0.126066
-0.026437
-0.014367
0.166320
0.515691
0.018278
0.638900
0.389018
0.450696
0.313801
0.018289
0.038874
0.141707
-0.061310
0.294406
0.322473
0.392123
0.191579
0.295958
0.316079
0.360305
0.304456
0.534215
0.313988
0.394494
0.378992
0.082224
0.454510
0.286213
0.224253
-0.273910
0.041953
-0.269667
-0.105865
-0.280045
-0.146702
-0.113304
-0.224642
-0.058554
0.001076
-0.077352
-0.008028
-0.166801
-0.003130
-0.244161
-0.132937
-0.071947
0.074780
0.143123
-0.062517
-0.038593
0.136480
0.303818
-0.162038
-0.293832
-0.100342
-0.130939
-0.296898
-0.116188
-0.107696
0.091922
-0.143175
-0.015172
0.087662
0.124805
-0.044156
0.108476
0.336117
0.557006
-0.001318
0.287789
0.539010
0.569944
0.172111
-0.031249
0.124431
0.217706
-0.089783
0.078403
0.442358
0.299929
0.121469
0.087131
0.387586
0.312696
0.077019
0.030161
0.274834
0.102177
-0.074709
0.003890
0.192996
0.278589
0.048377
-0.086139
0.207173
-0.130798
0.059255
-0.012224
0.126580
0.282531
-0.037558
-0.115508
0.137535
0.084763
0.000411
-0.127945
0.042186
-0.037559
0.005744
-0.145624
-0.179112
-0.238705
-0.135967
-0.020461
0.030891
0.390552
-0.018978
-0.087591
-0.152701
-0.358094
-0.108614
-0.126263
-0.042050
0.026332
-0.099064
-0.114458
-0.077915
0.191006
-0.020578
0.032465
-0.016708
0.580904
0.002770
0.514318
0.609811
0.426651
0.440646
-0.070716
-0.114724
-0.075547
-0.064246
-0.050942
0.047242
-0.198770
0.116988
-0.068334
-0.135328
0.250147
-0.022808
0.046474
0.023071
-0.099626
0.051660
0.015737
-0.046875
-0.009845
-0.108959
-0.157062
0.072034
-0.099797
-0.069045
-0.184712
-0.241342
0.158436
-0.166124
0.109055
0.026479
0.059862
-0.008907
-0.124766
-0.162529
-0.032145
-0.011023
-0.264357
-0.212012
-0.182829
-0.330266
-0.281413
-0.170124
0.072364
-0.213137
-0.040805
-0.110065
-0.109088
-0.128129
-0.327735
-0.301225
-0.246425
-0.308772
-0.282362
-0.423145
-0.159088
-0.288902
-0.228305
-0.184670
0.202747
-0.243686
-0.130515
-0.346774
-0.029732
-0.217910
-0.204525
-0.350848
-0.248541
-0.126082
-0.227627
-0.359777
-0.314761
-0.310100
-0.231700
-0.289326
0.136328
-0.227432
-0.141566
-0.275677
-0.309287
-0.280494
-0.310224
-0.254890
-0.281995
-0.234448
-0.394299
-0.324778
-0.210868
-0.301230
-0.272482
-0.416683
0.153921
-0.337882
-0.066275
-0.066092
-0.033875
-0.138048
-0.368161
-0.280326
-0.211749
-0.295922
-0.136737
0.148553
0.174292
-0.184781
-0.175607
0.142101
0.305105
-0.167229
-0.007289
0.138830
-0.181667
-0.006210
-0.306760
0.195952
-0.085508
-0.125911
0.084568
0.087124
0.251746
-0.025552
-0.073065
0.124318
0.459598
-0.040301
0.519067
0.843411
0.780102
0.308824
-0.197753
0.099609
0.154228
-0.089090
0.237463
0.741482
0.999115
0.322098
0.111948
0.734649
0.752823
0.090991
0.200675
0.825061
0.370630
0.160696
-0.036632
0.389795
0.375056
-0.056096
-0.328609
0.247844
-0.145756
-0.068713
-0.149246
0.067809
0.161871
-0.177233
-0.126841
0.032958
0.134050
0.096899
-0.223138
0.092013
-0.003984
-0.036868
-0.169025
-0.135137
-0.111153
-0.259687
-0.172526
-0.113026
0.133471
-0.242899
-0.248949
-0.099972
-0.119438
-0.287993
-0.221531
-0.164576
-0.050349
-0.212796
-0.154098
-0.101110
-0.100076
-0.186880
-0.134621
-0.020918
0.193435
-0.252985
0.059329
-0.082426
-0.009579
-0.213565
-0.289373
-0.205835
-0.331743
-0.171215
-0.313854
-0.326622
-0.344495
-0.329045
-0.373148
-0.262705
-0.011507
-0.395292
-0.310794
-0.277868
-0.202609
-0.401506
-0.380837
-0.405868
-0.431606
-0.275102
-0.139719
-0.143412
-0.164038
-0.148830
-0.122695
-0.220704
0.329208
-0.287352
0.015557
0.003193
0.080964
-0.076027
-0.213988
-0.192093
-0.097391
-0.158996
-0.205962
-0.144687
-0.179148
-0.230348
-0.254977
-0.049028
-0.030581
-0.097781
-0.137567
-0.130846
-0.226600
-0.094863
-0.104030
-0.079185
-0.108809
-0.074808
-0.033134
-0.184847
0.066542
-0.114717
-0.086293
-0.073801
0.508263
-0.156064
0.454831
0.304565
0.393096
0.283486
-0.305146
-0.254148
-0.159823
-0.192662
0.069282
0.162777
0.104532
0.069544
-0.060150
0.118968
0.354050
-0.063295
0.030535
0.165765
0.089577
-0.010611
-0.150294
-0.035330
-0.009910
-0.172696
-0.201700
-0.025934
-0.203487
-0.189924
-0.141197
-0.083365
0.301089
-0.222795
-0.048566
-0.067904
0.027183
-0.139338
-0.167135
-0.182401
-0.101236
-0.163988
-0.190894
-0.165319
0.007839
-0.217545
0.051483
0.099386
0.733446
-0.048058
0.019110
0.001844
0.051600
-0.031491
-0.285345
-0.268666
0.056010
-0.347661
-0.197781
-0.285835
-0.107300
-0.316249
0.053199
-0.008842
0.215647
-0.153363
-0.038408
0.031197
0.276618
-0.010444
-0.226663
-0.271742
-0.177922
-0.271032
0.046954
-0.004737
-0.016489
0.096418
0.069412
-0.052647
0.398511
-0.016171
-0.063850
-0.068646
-0.002113
-0.097996
0.006580
0.026222
0.128926
0.024807
-0.299674
-0.077098
-0.186364
-0.235767
0.092189
0.055120
0.751269
-0.152239
-0.075349
-0.031709
0.026430
-0.091910
-0.173493
-0.182600
0.075354
-0.255362
-0.095206
0.039871
0.000478
-0.171181
-0.107114
-0.028039
0.252520
-0.199958
0.031595
0.080136
-0.037985
0.116488
-0.197392
-0.108346
-0.107841
-0.159258
-0.208909
-0.168660
-0.120614
-0.230491
-0.011200
0.187666
0.357948
-0.049351
0.152816
0.222713
0.183249
0.115490
-0.249202
-0.102354
-0.023386
-0.205564
0.266943
0.584390
0.645891
0.454236
0.489800
0.202170
0.329527
0.461124
0.399791
0.534285
0.559207
-0.048167
0.136247
0.119200
0.285553
0.026054
-0.301206
0.088639
-0.226054
-0.061254
0.002298
-0.027516
0.361268
-0.131870
-0.109209
-0.036626
0.104365
-0.058530
-0.195720
-0.126375
-0.196507
-0.142405
0.437071
-0.005267
0.424162
0.284947
0.806892
0.602813
0.976508
0.298067
0.521146
0.744960
0.562039
0.470029
0.415658
0.097571
0.386986
0.159006
0.292390
0.102692
0.292954
0.255552
0.449547
0.306309
0.654959
0.265802
0.130529
0.340472
0.388275
0.140391
0.071290
0.115115
0.328793
-0.047959
0.346960
0.396266
0.482992
0.317681
0.495818
0.271130
0.657222
0.156925
0.323101
0.572265
0.359961
0.205082
0.041172
0.357126
0.373601
0.126104
0.085106
0.292709
0.098737
0.087301
0.613610
0.359516
0.612836
0.214092
0.116057
0.505132
0.505621
0.261073
0.026260
0.127528
0.094699
0.070924
-0.250083
-0.284647
-0.300020
-0.289112
-0.005848
0.127446
0.514298
-0.182009
-0.288671
-0.267838
-0.420471
-0.160203
-0.198990
-0.303346
0.042264
-0.276819
-0.287019
-0.373399
-0.074090
-0.332966
-0.140508
-0.083919
0.236470
-0.247885
-0.098311
-0.011074
0.092805
-0.059337
-0.313640
-0.370347
-0.200733
-0.233870
-0.110334
-0.140750
-0.207051
-0.111094
-0.134862
-0.165040
0.286713
-0.090913
-0.055645
0.004428
-0.090272
0.015916
-0.156007
-0.185966
-0.053519
-0.198276
-0.159775
-0.101707
-0.199011
-0.219127
0.012358
-0.016862
0.486556
-0.140889
-0.218477
-0.186953
-0.153511
-0.179022
-0.166230
-0.302771
0.023873
-0.219477
-0.027398
-0.126606
0.021922
-0.143493
-0.048425
0.016170
0.535659
-0.091802
0.211571
0.146455
0.152139
-0.030419
-0.251798
-0.126919
-0.059994
-0.131863
0.047878
-0.045520
0.050152
-0.035983
0.127386
0.162042
0.691880
-0.084871
0.484878
0.380460
0.505440
0.207083
-0.073258
-0.207165
-0.095961
-0.131655
-0.150483
-0.325277
-0.195160
-0.322888
0.022674
-0.119696
0.653360
-0.058074
0.063829
-0.136268
-0.039983
-0.220785
-0.280239
-0.263787
-0.085698
-0.137304
-0.033362
-0.030473
-0.033451
-0.104146
0.016105
0.030243
0.628662
-0.262280
0.327157
0.196650
0.148878
0.048456
-0.207569
-0.147667
-0.030842
-0.194143
-0.141631
-0.124919
-0.022750
-0.262243
-0.024049
0.083081
0.292138
-0.068491
0.088595
0.219082
0.163189
-0.006134
-0.248515
0.005357
-0.145026
-0.168420
0.172502
-0.037350
0.104858
0.017346
0.015120
0.331180
0.486174
0.123908
0.447426
0.599017
0.523599
0.192796
-0.150041
-0.153612
-0.088806
-0.110796
0.087427
0.455068
0.415877
-0.063448
0.437688
0.473177
0.462664
0.491709
0.498636
0.716605
0.581456
0.087537
0.167314
0.215420
0.188826
-0.044463
-0.123643
0.083462
-0.069642
-0.103085
0.024769
0.009955
0.489248
-0.102823
0.134569
0.393548
0.222923
0.078660
-0.207862
-0.073397
-0.188710
-0.132164
-0.016179
0.046423
0.021529
-0.133425
0.184695
0.348732
0.715916
0.003265
0.204390
0.274570
0.223650
-0.092772
-0.075088
0.019539
0.149821
-0.099248
0.064323
-0.017864
0.151718
-0.031684
0.179638
0.333109
0.653359
0.060995
0.316771
0.279068
0.576739
0.232646
-0.026800
-0.047077
0.158856
-0.023460
-0.078493
-0.029826
-0.171538
-0.258528
0.093287
0.215460
0.402052
0.030646
0.052132
0.183056
0.152813
-0.090124
-0.198820
-0.115737
-0.062089
-0.194979
-0.185159
0.180409
-0.022522
-0.034424
0.192502
0.168331
0.344305
-0.212824
0.117311
0.273110
0.298564
0.135594
-0.064830
0.033337
0.005206
-0.023011
-0.084413
-0.264871
-0.295447
-0.240632
0.136751
0.134501
0.629440
0.047188
-0.121700
-0.100609
-0.248520
-0.123543
-0.056288
-0.067699
0.083715
-0.097489
0.003982
-0.059834
0.043980
-0.060837
0.068510
0.130292
0.547885
-0.025732
0.279728
0.112115
0.498062
0.194123
-0.214050
-0.210288
-0.069543
-0.186142
-0.027791
-0.133574
-0.250582
-0.130870
0.003458
0.077608
0.459852
0.031538
0.191396
0.210472
0.096145
0.060479
-0.040307
-0.063167
-0.040657
-0.105253
-0.088177
-0.054881
-0.156594
-0.140393
-0.001713
-0.048842
0.583790
-0.168218
-0.035361
-0.117051
-0.008958
-0.102768
-0.115284
-0.175181
0.014587
-0.111140
-0.194479
-0.188497
-0.039852
-0.212598
-0.230033
-0.188460
-0.157812
-0.167974
-0.227356
-0.221578
-0.098984
-0.159435
-0.250089
-0.263846
-0.016753
-0.248254
-0.056081
-0.101287
-0.195419
-0.170137
-0.000333
-0.053438
0.449140
-0.105248
0.343864
0.094072
0.061817
0.020925
-0.096287
-0.113781
-0.043854
-0.082812
-0.126886
-0.131520
-0.211618
-0.080290
-0.160013
-0.218480
-0.190751
-0.217606
-0.294143
-0.373875
-0.378075
-0.307675
-0.189546
-0.158431
0.015632
-0.203169
-0.207253
-0.099020
-0.162821
-0.080401
-0.063194
-0.121081
0.302005
-0.270673
0.044672
-0.047182
0.021250
-0.056487
-0.211173
-0.177897
-0.068659
-0.185210
-0.131489
-0.045008
-0.110852
-0.243550
-0.172445
-0.055027
0.127694
-0.198380
0.067049
0.090497
-0.017133
0.066724
-0.159380
-0.054496
-0.053883
-0.202611
-0.127622
-0.159867
0.005950
-0.182415
-0.212971
-0.044865
0.113887
-0.192513
0.422188
0.414057
0.435962
0.209485
-0.217348
-0.094969
-0.046217
-0.230720
0.428577
0.828511
0.575483
0.451164
0.197354
0.414040
0.374117
0.139426
0.290778
0.516223
0.387047
0.128997
0.077536
0.403129
0.534539
-0.004910
-0.246186
-0.018991
-0.253908
-0.251991
-0.236005
-0.218770
0.108707
-0.243628
-0.160439
-0.149403
-0.055003
-0.156366
-0.172164
-0.105960
-0.117279
-0.223663
-0.023540
-0.147817
0.098953
-0.181612
0.076658
0.083100
0.417666
-0.059559
-0.215259
-0.122221
-0.058688
-0.151909
0.035201
-0.079130
0.243667
-0.138629
-0.175354
0.005465
0.010023
-0.201360
0.095038
-0.084177
0.318860
-0.169527
0.091480
0.212227
0.324094
0.089402
-0.090979
-0.231257
0.043515
-0.201432
-0.070723
-0.049758
0.023939
-0.038105
0.042924
-0.026265
0.282801
-0.065385
-0.201257
0.006315
0.026312
-0.182075
-0.003301
-0.033814
0.079211
0.021363
-0.154090
0.128056
-0.158967
-0.094501
-0.040016
-0.023782
0.113623
-0.258133
-0.145723
0.003746
0.140745
-0.085909
-0.123475
-0.148644
-0.074544
-0.148166
-0.134752
-0.131565
-0.144841
-0.155649
-0.114893
-0.057820
0.025032
-0.105644
-0.070583
-0.107448
-0.238129
-0.117060
-0.083451
-0.171552
-0.032335
-0.185452
-0.209227
-0.259830
-0.074215
-0.228852
-0.223020
-0.240784
0.185189
-0.272547
0.311078
-0.053160
0.191206
0.011638
-0.241479
-0.316519
-0.194190
-0.231724
-0.017257
0.156627
-0.104284
0.089729
-0.080520
0.023732
0.165175
-0.070872
-0.053513
0.071373
-0.105609
0.073737
-0.066809
-0.118233
0.054286
-0.117934
-0.118828
-0.114046
-0.151396
-0.106982
-0.184327
-0.213877
0.065202
-0.262424
-0.041576
-0.081729
-0.012854
-0.088151
-0.074369
-0.202566
-0.070469
-0.138837
